<?xml version="1.0"?>
<opencv_storage>
<stage17>
  <maxWeakCount>5</maxWeakCount>
  <stageThreshold>-9.8641389608383179e-01</stageThreshold>
  <weakClassifiers>
    <_>
      <internalNodes>
        0 -1 98506 4.0612518787384033e-02</internalNodes>
      <leafValues>
        -6.5137612819671631e-01 3.6363637447357178e-01</leafValues></_>
    <_>
      <internalNodes>
        0 -1 8159 -3.3027806784957647e-04</internalNodes>
      <leafValues>
        -7.5773543119430542e-01 2.2100649774074554e-01</leafValues></_>
    <_>
      <internalNodes>
        0 -1 128616 -3.5563628189265728e-03</internalNodes>
      <leafValues>
        4.1514694690704346e-01 -4.7579741477966309e-01</leafValues></_>
    <_>
      <internalNodes>
        0 -1 106396 3.6782997194677591e-03</internalNodes>
      <leafValues>
        -5.0814306735992432e-01 4.3743947148323059e-01</leafValues></_>
    <_>
      <internalNodes>
        0 -1 9689 -2.3254413099493831e-04</internalNodes>
      <leafValues>
        5.0061172246932983e-01 -4.6304813027381897e-01</leafValues></_></weakClassifiers></stage17>
</opencv_storage>
