<?xml version="1.0"?>
<opencv_storage>
<stage16>
  <maxWeakCount>5</maxWeakCount>
  <stageThreshold>-5.6720954179763794e-01</stageThreshold>
  <weakClassifiers>
    <_>
      <internalNodes>
        0 -1 23676 2.4341013282537460e-02</internalNodes>
      <leafValues>
        -5.5731225013732910e-01 7.4193549156188965e-01</leafValues></_>
    <_>
      <internalNodes>
        0 -1 161384 -1.0671971831470728e-03</internalNodes>
      <leafValues>
        -8.5999780893325806e-01 1.7749866843223572e-01</leafValues></_>
    <_>
      <internalNodes>
        0 -1 64344 -1.2606161180883646e-03</internalNodes>
      <leafValues>
        4.6667030453681946e-01 -3.9037272334098816e-01</leafValues></_>
    <_>
      <internalNodes>
        0 -1 25821 4.0898917359299958e-04</internalNodes>
      <leafValues>
        2.8100445866584778e-01 -8.2327145338058472e-01</leafValues></_>
    <_>
      <internalNodes>
        0 -1 25795 3.3750599250197411e-03</internalNodes>
      <leafValues>
        1.6920517385005951e-01 -8.9405721426010132e-01</leafValues></_></weakClassifiers></stage16>
</opencv_storage>
