<?xml version="1.0"?>
<opencv_storage>
<stage18>
  <maxWeakCount>6</maxWeakCount>
  <stageThreshold>-7.2262871265411377e-01</stageThreshold>
  <weakClassifiers>
    <_>
      <internalNodes>
        0 -1 2697 -4.4803857803344727e-01</internalNodes>
      <leafValues>
        3.1147539615631104e-01 -6.1434978246688843e-01</leafValues></_>
    <_>
      <internalNodes>
        0 -1 151860 -7.3645132943056524e-05</internalNodes>
      <leafValues>
        -9.0961891412734985e-01 1.0278051346540451e-01</leafValues></_>
    <_>
      <internalNodes>
        0 -1 50201 -3.2629976049065590e-03</internalNodes>
      <leafValues>
        6.2816208600997925e-01 -2.8922113776206970e-01</leafValues></_>
    <_>
      <internalNodes>
        0 -1 60597 -5.9888152463827282e-05</internalNodes>
      <leafValues>
        -6.1354136466979980e-01 3.1292223930358887e-01</leafValues></_>
    <_>
      <internalNodes>
        0 -1 69612 1.8475715478416532e-05</internalNodes>
      <leafValues>
        -4.4768288731575012e-01 4.1245281696319580e-01</leafValues></_>
    <_>
      <internalNodes>
        0 -1 21154 -2.6095184148289263e-04</internalNodes>
      <leafValues>
        3.7426647543907166e-01 -5.1269316673278809e-01</leafValues></_></weakClassifiers></stage18>
</opencv_storage>
