<?xml version="1.0"?>
<opencv_storage>
<stage10>
  <maxWeakCount>5</maxWeakCount>
  <stageThreshold>-8.0599093437194824e-01</stageThreshold>
  <weakClassifiers>
    <_>
      <internalNodes>
        0 -1 60253 6.8411894142627716e-02</internalNodes>
      <leafValues>
        -5.8870965242385864e-01 7.7777779102325439e-01</leafValues></_>
    <_>
      <internalNodes>
        0 -1 60433 5.7106562890112400e-03</internalNodes>
      <leafValues>
        2.5388705730438232e-01 -9.2234385013580322e-01</leafValues></_>
    <_>
      <internalNodes>
        0 -1 134367 7.0289354771375656e-03</internalNodes>
      <leafValues>
        -4.2425194382667542e-01 7.5596719980239868e-01</leafValues></_>
    <_>
      <internalNodes>
        0 -1 161938 -7.1049632970243692e-04</internalNodes>
      <leafValues>
        -8.3463054895401001e-01 3.6079061031341553e-01</leafValues></_>
    <_>
      <internalNodes>
        0 -1 144044 -3.1509627588093281e-03</internalNodes>
      <leafValues>
        7.8911101818084717e-01 -3.9250493049621582e-01</leafValues></_></weakClassifiers></stage10>
</opencv_storage>
