<?xml version="1.0"?>
<opencv_storage>
<stage19>
  <maxWeakCount>6</maxWeakCount>
  <stageThreshold>-9.1316246986389160e-01</stageThreshold>
  <weakClassifiers>
    <_>
      <internalNodes>
        0 -1 81023 -3.0765959993004799e-02</internalNodes>
      <leafValues>
        2.0481927692890167e-01 -6.7164176702499390e-01</leafValues></_>
    <_>
      <internalNodes>
        0 -1 151981 -3.9025326259434223e-05</internalNodes>
      <leafValues>
        -5.8414453268051147e-01 2.9199528694152832e-01</leafValues></_>
    <_>
      <internalNodes>
        0 -1 96063 7.8018046915531158e-03</internalNodes>
      <leafValues>
        -3.0993211269378662e-01 6.3737791776657104e-01</leafValues></_>
    <_>
      <internalNodes>
        0 -1 4149 -6.5102707594633102e-04</internalNodes>
      <leafValues>
        -9.4639831781387329e-01 1.9927334785461426e-01</leafValues></_>
    <_>
      <internalNodes>
        0 -1 148229 1.5348150918725878e-04</internalNodes>
      <leafValues>
        -6.6524308919906616e-01 2.9658541083335876e-01</leafValues></_>
    <_>
      <internalNodes>
        0 -1 16320 4.9831735668703914e-04</internalNodes>
      <leafValues>
        2.4238587915897369e-01 -6.7052900791168213e-01</leafValues></_></weakClassifiers></stage19>
</opencv_storage>
