<?xml version="1.0"?>
<opencv_storage>
<stage11>
  <maxWeakCount>5</maxWeakCount>
  <stageThreshold>-1.0598050355911255e+00</stageThreshold>
  <weakClassifiers>
    <_>
      <internalNodes>
        0 -1 6115 -4.9376789480447769e-02</internalNodes>
      <leafValues>
        2.7835050225257874e-01 -7.7540105581283569e-01</leafValues></_>
    <_>
      <internalNodes>
        0 -1 37979 -4.3059326708316803e-03</internalNodes>
      <leafValues>
        -7.4555844068527222e-01 2.7007552981376648e-01</leafValues></_>
    <_>
      <internalNodes>
        0 -1 147442 -4.6086208894848824e-03</internalNodes>
      <leafValues>
        6.7860472202301025e-01 -4.2265108227729797e-01</leafValues></_>
    <_>
      <internalNodes>
        0 -1 161276 -3.9769234717823565e-04</internalNodes>
      <leafValues>
        -8.9233976602554321e-01 3.1757575273513794e-01</leafValues></_>
    <_>
      <internalNodes>
        0 -1 70973 -2.0895354449748993e-02</internalNodes>
      <leafValues>
        6.2326884269714355e-01 -4.4940418004989624e-01</leafValues></_></weakClassifiers></stage11>
</opencv_storage>
